digraph Tree {
node [shape=box, style="filled", color="black"] ;
0 [label="X[9] <= 0.5\nentropy = 0.88\nsamples = 700\nvalue = [491, 209]", fillcolor="#f0b78d"] ;
1 [label="X[0] <= 33.0\nentropy = 0.976\nsamples = 425\nvalue = [251, 174]", fillcolor="#f7d8c2"] ;
0 -> 1 [labeldistance=2.5, labelangle=45, headlabel="True"] ;
2 [label="X[1] <= 10975.5\nentropy = 0.939\nsamples = 343\nvalue = [221, 122]", fillcolor="#f3c7a6"] ;
1 -> 2 ;
3 [label="X[4] <= 35.5\nentropy = 0.929\nsamples = 337\nvalue = [221, 116]", fillcolor="#f3c3a1"] ;
2 -> 3 ;
4 [label="entropy = 0.975\nsamples = 211\nvalue = [125, 86]", fillcolor="#f7d8c1"] ;
3 -> 4 ;
5 [label="entropy = 0.792\nsamples = 126\nvalue = [96, 30]", fillcolor="#eda877"] ;
3 -> 5 ;
6 [label="entropy = 0.0\nsamples = 6\nvalue = [0, 6]", fillcolor="#399de5"] ;
2 -> 6 ;
7 [label="X[20] <= 0.5\nentropy = 0.947\nsamples = 82\nvalue = [30, 52]", fillcolor="#abd6f4"] ;
1 -> 7 ;
8 [label="X[3] <= 3.5\nentropy = 0.889\nsamples = 75\nvalue = [23, 52]", fillcolor="#91c8f0"] ;
7 -> 8 ;
9 [label="entropy = 0.982\nsamples = 45\nvalue = [19, 26]", fillcolor="#cae5f8"] ;
8 -> 9 ;
10 [label="entropy = 0.567\nsamples = 30\nvalue = [4, 26]", fillcolor="#57ace9"] ;
8 -> 10 ;
11 [label="entropy = 0.0\nsamples = 7\nvalue = [7, 0]", fillcolor="#e58139"] ;
7 -> 11 ;
12 [label="X[31] <= 0.5\nentropy = 0.55\nsamples = 275\nvalue = [240, 35]", fillcolor="#e99356"] ;
0 -> 12 [labeldistance=2.5, labelangle=-45, headlabel="False"] ;
13 [label="X[3] <= 2.5\nentropy = 0.887\nsamples = 46\nvalue = [32, 14]", fillcolor="#f0b890"] ;
12 -> 13 ;
14 [label="X[4] <= 32.5\nentropy = 0.988\nsamples = 23\nvalue = [13, 10]", fillcolor="#f9e2d1"] ;
13 -> 14 ;
15 [label="entropy = 0.837\nsamples = 15\nvalue = [11, 4]", fillcolor="#eeaf81"] ;
14 -> 15 ;
16 [label="entropy = 0.811\nsamples = 8\nvalue = [2, 6]", fillcolor="#7bbeee"] ;
14 -> 16 ;
17 [label="X[4] <= 41.5\nentropy = 0.667\nsamples = 23\nvalue = [19, 4]", fillcolor="#ea9c63"] ;
13 -> 17 ;
18 [label="entropy = 0.863\nsamples = 14\nvalue = [10, 4]", fillcolor="#efb388"] ;
17 -> 18 ;
19 [label="entropy = 0.0\nsamples = 9\nvalue = [9, 0]", fillcolor="#e58139"] ;
17 -> 19 ;
20 [label="X[14] <= 0.5\nentropy = 0.442\nsamples = 229\nvalue = [208, 21]", fillcolor="#e88e4d"] ;
12 -> 20 ;
21 [label="X[4] <= 23.5\nentropy = 0.592\nsamples = 133\nvalue = [114, 19]", fillcolor="#e9965a"] ;
20 -> 21 ;
22 [label="entropy = 0.994\nsamples = 11\nvalue = [6, 5]", fillcolor="#fbeade"] ;
21 -> 22 ;
23 [label="entropy = 0.514\nsamples = 122\nvalue = [108, 14]", fillcolor="#e89153"] ;
21 -> 23 ;
24 [label="X[1] <= 6984.5\nentropy = 0.146\nsamples = 96\nvalue = [94, 2]", fillcolor="#e6843d"] ;
20 -> 24 ;
25 [label="entropy = 0.0\nsamples = 91\nvalue = [91, 0]", fillcolor="#e58139"] ;
24 -> 25 ;
26 [label="entropy = 0.971\nsamples = 5\nvalue = [3, 2]", fillcolor="#f6d5bd"] ;
24 -> 26 ;
}
